tree
version=v4
num_class=1
num_tree_per_iteration=1
label_index=0
max_feature_idx=99
objective=regression
feature_names=store_nbr family x_1 x_2 x_3 x_4 x_5 x_6 x_7 x_8 x_9 x_10 x_11 x_12 x_13 x_14 x_15 x_16 x_17 x_18 x_19 x_20 x_21 days_out dcoilwtico cluster month day Cantonizacion Fundacion Independencia Provincializacion BatalladePichincha BlackFriday Carnaval CyberMonday DiadeDifuntos DiadelaMadre DiadelaMadreminus1 DiadelTrabajo InauguracionMundialdefutbolBrasil IndependenciadeCuenca IndependenciadeGuayaquil MundialdefutbolBrasilCuartosdeFinal MundialdefutbolBrasilEcuadorminusFrancia MundialdefutbolBrasilEcuadorminusHonduras MundialdefutbolBrasilEcuadorminusSuiza MundialdefutbolBrasilFinal MundialdefutbolBrasilOctavosdeFinal MundialdefutbolBrasilSemifinales MundialdefutbolBrasilTercerycuartolugar Navidad Navidadplus1 Navidadminus1 Navidadminus2 Navidadminus3 Navidadminus4 PrimerGritodeIndependencia Primerdiadelano Primerdiadelanominus1 PuenteDiadeDifuntos PuenteNavidad PuentePrimerdiadelano RecuperoPuenteDiadeDifuntos RecuperoPuenteNavidad RecuperoPuentePrimerdiadelano RecuperopuenteNavidad Recuperopuenteprimerdiadelano TerremotoManabi TerremotoManabiplus1 TerremotoManabiplus10 TerremotoManabiplus11 TerremotoManabiplus12 TerremotoManabiplus13 TerremotoManabiplus14 TerremotoManabiplus15 TerremotoManabiplus16 TerremotoManabiplus17 TerremotoManabiplus18 TerremotoManabiplus19 TerremotoManabiplus2 TerremotoManabiplus20 TerremotoManabiplus21 TerremotoManabiplus22 TerremotoManabiplus23 TerremotoManabiplus24 TerremotoManabiplus25 TerremotoManabiplus26 TerremotoManabiplus27 TerremotoManabiplus28 TerremotoManabiplus29 TerremotoManabiplus3 TerremotoManabiplus30 TerremotoManabiplus4 TerremotoManabiplus5 TerremotoManabiplus6 TerremotoManabiplus7 TerremotoManabiplus8 TerremotoManabiplus9 ViernesSanto
feature_infos=-1:23:22:5:27:24:30:10:18:29:1:16:4:14:25:2:13:9:28:17:7:19:26:15:3:21:20:6:8:12:11 -1:15:29:2:28:4:30:17:23:14:8:31:6:18:7:13:24:32:20:26:21:3:10:9:27:1:12:19:22:11:25:0:5:16 [0:124717] [0:124717] [0:124717] [0:124717] [0:124717] [0:124717] [0:124717] [0:34454] [0:124717] [0:124717] [0:87438.516000000003] [0:37514.925999999999] [0:24612] [0:34454] [0:63434] [0:31375.5] [0:23687] [0:20891.557000000001] [0:87438.516000000003] [0:33274] [0:124717] [1:16] [26.190000000000001:110.62] -1:15:6:1:10:13:8:9:7:3:4:16:12 -1:6:2:4:3:5:1:0:7:9:11:8:10 -1:0:3:6:2:5:1:4 [0:1] [0:1] [0:1] [0:1] [0:1] [0:1] [0:1] [0:1] [0:1] [0:1] [0:1] [0:1] [0:1] [0:1] [0:1] [0:1] [0:1] [0:1] [0:1] [0:1] [0:1] [0:1] [0:1] none [0:1] [0:1] [0:1] [0:1] [0:1] [0:1] [0:1] [0:1] none [0:1] [0:1] none [0:1] [0:1] none none [0:1] [0:1] [0:1] [0:1] [0:1] [0:1] [0:1] [0:1] [0:1] [0:1] [0:1] [0:1] [0:1] [0:1] [0:1] [0:1] [0:1] [0:1] [0:1] [0:1] [0:1] [0:1] [0:1] [0:1] [0:1] [0:1] [0:1] [0:1] [0:1] [0:1] [0:1] [0:1]
tree_sizes=3014 3007 3015 3023 3046 3025 3043 3031 3015 3021

Tree=0
num_leaves=31
num_cat=14
split_feature=22 21 22 17 0 17 22 27 19 27 19 0 27 19 19 0 27 9 0 0 17 0 27 0 24 24 1 76 0 2
split_gain=8.40684e+12 1.04114e+12 1.0165e+12 2.83587e+11 2.5863e+11 1.56295e+11 1.45058e+11 9.90519e+10 8.42115e+10 5.11729e+10 4.92832e+10 4.01599e+10 3.34426e+10 3.03847e+10 2.85235e+10 2.70529e+10 2.50297e+10 2.41114e+10 2.38139e+10 2.12505e+10 1.94958e+10 1.8331e+10 1.83252e+10 1.44912e+10 1.23202e+10 1.21329e+10 1.16895e+10 1.10715e+10 1.07485e+10 1.04246e+10
threshold=1649.4575000000002 449.28750000000008 4537.5000000000009 2559.8235000000004 0 955.81850000000009 124.43200250000001 1 3127.0000000000005 2 1668.2370000000003 3 4 1391.4130000000002 5454.5000000000009 5 6 637.80500000000018 7 8 306.10700000000003 9 10 11 79.64500000000001 93.355000000000004 12 1.0000000180025095e-35 13 1531.1545000000003
decision_type=2 2 2 2 1 2 2 1 2 1 2 1 1 2 2 1 1 2 1 1 2 1 1 1 2 2 1 2 1 2
left_child=1 6 3 10 7 17 -1 18 12 11 -2 -10 28 -7 26 22 21 -3 25 -11 -8 -12 27 24 -16 -4 -9 -6 -5 -15
right_child=2 5 4 8 15 13 20 14 9 19 16 -13 -14 29 23 -17 -18 -19 -20 -21 -22 -23 -24 -25 -26 -27 -28 -29 -30 -31
leaf_value=251.84850746951906 417.43222200275284 303.71199405232204 1266.6562852382617 537.88073192885122 750.63253796177696 362.32798854686956 270.8776919412627 807.38324645184343 818.578535845131 627.44361809210568 484.67905825137012 642.77717153965409 509.80156387632701 391.46391982281631 995.595628214351 572.69227294004304 471.84434142696841 332.23551964367516 990.5925608458474 540.1764580086226 288.66793705350267 585.55584167337076 641.80474930702121 815.70704692341872 847.65303965278645 1047.3908856360658 630.17853970876922 1530.5155935519447 632.54142983880627 438.22382732814174
leaf_weight=14482724 140033 707909 8651 17910 34430 380302 2121165 12378 22506 90333 32834 31422 126623 115704 17825 20349 195394 509764 10454 40939 868091 40556 25501 12933 8227 3563 5610 183 38515 81092
leaf_count=14482724 140033 707909 8651 17910 34430 380302 2121165 12378 22506 90333 32834 31422 126623 115704 17825 20349 195394 509764 10454 40939 868091 40556 25501 12933 8227 3563 5610 183 38515 81092
internal_value=277.665 263.439 570.144 522.87 799.585 335.969 255.988 927.399 586.522 634.064 465.535 716.232 538.421 378.834 856.672 672.948 490.596 315.653 1104.83 600.25 276.044 540.459 706.83 904.837 948.619 1201.94 752.608 754.618 602.546 410.732
internal_weight=0 1.92668e+07 937169 777065 160104 1.79477e+06 1.7472e+07 79641 368248 185200 408817 53928 183048 577098 56973 80463 268784 1.21767e+06 22668 131272 2.98926e+06 73390 60114 38985 26052 12214 17988 34613 56425 196796
internal_count=20203920 19266751 937169 777065 160104 1794771 17471980 79641 368248 185200 408817 53928 183048 577098 56973 80463 268784 1217673 22668 131272 2989256 73390 60114 38985 26052 12214 17988 34613 56425 196796
cat_boundaries=0 1 2 3 4 5 6 7 8 9 10 11 12 13 14
cat_threshold=2568 65 65 271584072 65 20054468 65 8 17828812 1203804330 75 8 1073745920 1187314818
is_linear=0
shrinkage=1


Tree=1
num_leaves=31
num_cat=15
split_feature=22 17 20 22 0 16 21 27 19 10 27 22 0 0 27 19 22 27 27 22 0 16 0 26 0 27 1 11 94 0
split_gain=6.8121e+12 9.01039e+11 7.6824e+11 2.38168e+11 2.37911e+11 1.12664e+11 1.0742e+11 7.95108e+10 6.22056e+10 5.76291e+10 3.26626e+10 3.13188e+10 2.64056e+10 2.61275e+10 2.4674e+10 2.45719e+10 2.35572e+10 2.24123e+10 1.92999e+10 1.66458e+10 1.52638e+10 1.47761e+10 1.37434e+10 1.2729e+10 1.24013e+10 1.1247e+10 1.0944e+10 1.03603e+10 1.03436e+10 1.03008e+10
threshold=1534.5000000000002 4203.5000000000009 424.43700000000007 2769.5000000000005 0 856.02650000000006 107.00349800000002 1 1797.4455000000003 2866.0000000000005 2 5553.7855000000009 3 4 5 1041.0430000000003 5553.7855000000009 6 7 590.00700000000018 8 289.00250000000005 9 10 11 12 13 1356.2345000000003 1.0000000180025095e-35 14
decision_type=2 2 2 2 1 2 2 1 2 2 1 2 1 1 1 2 2 1 1 2 1 2 1 1 1 1 1 2 2 1
left_child=2 3 6 8 7 19 -1 16 27 17 12 26 -11 18 20 -7 -3 -5 -6 -4 -10 -8 -12 -13 -25 -17 -9 -2 -20 -18
right_child=1 4 5 9 13 15 21 11 14 10 22 23 -14 -15 -16 25 29 -19 28 -21 -22 -23 -24 24 -26 -27 -28 -29 -30 -31
leaf_value=-23.479937901326156 97.040976661351735 598.07704572457408 19.608447216835771 294.79961788758868 421.7171296227047 60.697522213430432 -7.4089671147548746 462.665084275948 186.32720503581558 485.30144348682154 313.02227340331092 741.75730497926861 328.7826471679611 265.30491024065253 175.26706310284328 127.93448855082522 862.1458238489663 207.89352366370883 316.91501786837142 43.386073423243317 272.83563366342372 7.7440429147916507 240.46030888290761 588.86427213163427 462.39684436330265 88.291981940131663 302.40427319979398 143.44410868537031 1197.3072489724232 682.23787073899302
leaf_weight=14195889 94545 9008 676850 40883 45952 298602 2264951 13424 33906 17587 80200 3814 28643 27098 214109 100975 10308 110069 32518 521084 52125 898920 39386 23377 12441 247164 6516 97974 134 5468
leaf_count=14195889 94545 9008 676850 40883 45952 298602 2264951 13424 33906 17587 80200 3814 28643 27098 214109 100975 10308 110069 32518 521084 52125 898920 39386 23377 12441 247164 6516 97974 134 5468
internal_value=0 254.528 -13.2465 208.52 450.471 48.1099 -19.7663 575.764 165.023 276.168 316.864 512.814 388.418 350.393 193.482 81.7442 726.805 231.464 379.689 29.9514 238.767 -3.10369 289.146 564.331 545.078 99.7962 410.679 120.656 320.43 800.768
internal_weight=0 999485 1.92044e+07 809427 190058 1.84468e+06 1.73598e+07 84356 492659 316768 165816 59572 46230 105702 300140 646741 24784 150952 78604 1.19793e+06 86031 3.16387e+06 119586 39632 35818 348139 19940 192519 32652 15776
internal_count=20203920 999485 19204435 809427 190058 1844675 17359760 84356 492659 316768 165816 59572 46230 105702 300140 646741 24784 150952 78604 1197934 86031 3163871 119586 39632 35818 348139 19940 192519 32652 15776
cat_boundaries=0 1 2 3 4 5 6 7 8 9 10 11 12 13 14 15
cat_threshold=2568 65 65 271584072 20054468 65 65 75 1203804298 17828812 2048 8 65 1073745920 8
is_linear=0
shrinkage=0.1


Tree=2
num_leaves=31
num_cat=13
split_feature=21 22 22 0 10 18 18 27 27 20 18 0 17 19 10 0 3 27 24 0 21 27 0 22 0 24 27 27 1 12
split_gain=5.53846e+12 7.01666e+11 6.79471e+11 1.95901e+11 1.74503e+11 1.01895e+11 9.26689e+10 6.85202e+10 5.28705e+10 3.24152e+10 3.19916e+10 3.0213e+10 2.3442e+10 2.2931e+10 2.10791e+10 1.66953e+10 1.57963e+10 1.47955e+10 1.27926e+10 1.25068e+10 1.23668e+10 1.23613e+10 1.17768e+10 1.14789e+10 1.06015e+10 9.95835e+09 9.81812e+09 8.34475e+09 7.88673e+09 7.81869e+09
threshold=1618.6685000000002 4199.0010000000011 442.01150000000007 0 2454.5000000000005 957.71550000000013 116.00150000000001 1 2 3003.7640000000006 1666.2225500000002 3 3442.5000000000005 4878.5000000000009 1530.2350000000004 4 647.07850000000019 5 79.64500000000001 6 268.00500000000005 7 8 3144.0000000000005 9 93.355000000000004 10 11 12 3008.5000000000005
decision_type=2 2 2 1 2 2 2 1 1 2 2 1 2 2 2 1 2 1 2 1 2 1 1 2 1 2 1 1 1 2
left_child=2 4 6 7 10 16 -1 15 11 -10 -2 29 26 28 -7 25 -4 19 24 -12 -8 -14 -13 -11 27 -3 -5 -15 -9 -6
right_child=1 3 5 12 8 14 20 13 9 23 17 22 21 18 -16 -17 -18 -19 -20 -21 -22 -23 -24 -25 -26 -27 -28 -29 -30 -31
leaf_value=-21.088632300495334 109.52016605878407 804.07643780898479 21.544291952198691 338.26182329080746 314.4577924542603 69.876799299734529 -6.6375016829653113 417.08507518297722 181.02941188803695 218.1910254799696 162.18359887161392 301.07982749813732 391.38710017645002 670.07047370915836 112.9943917158739 574.47955497221676 44.582852276708564 153.43605047996041 427.49359736173949 247.50663923707316 6.6225119452519667 302.2404892723618 222.07386126186526 278.60528325468658 457.29743642119649 608.62709136749709 229.10511799554683 526.8046625628109 266.54027173405495 438.26367936275904
leaf_weight=14342388 146050 8701 752885 11401 7330 409554 2017805 8461 123065 54853 32481 53602 37664 7345 156787 11771 492151 185598 16722 36983 1079692 27410 29675 73714 11034 3722 31147 10934 6221 16774
leaf_count=14342388 146050 8701 752885 11401 7330 409554 2017805 8461 123065 54853 32481 53602 37664 7345 156787 11771 492151 185598 16722 36983 1079692 27410 29675 73714 11034 3722 31147 10934 6221 16774
internal_value=0 235.363 -11.6464 405.888 192.171 46.6475 -17.701 519.496 242.816 217.706 146.842 301.61 316.176 462.506 81.8136 662.268 30.6512 168.212 497.288 207.639 -2.01547 353.944 272.957 252.83 537.103 744.919 258.488 584.708 353.762 400.448
internal_weight=0 952658 1.92513e+07 192533 760125 1.81138e+06 1.74399e+07 84911 359013 251632 401112 107381 107622 60717 566341 24194 1.24504e+06 255062 46035 69464 3.0975e+06 65074 83277 128567 29313 12423 42548 18279 14682 24104
internal_count=20203920 952658 19251262 192533 760125 1811377 17439885 84911 359013 251632 401112 107381 107622 60717 566341 24194 1245036 255062 46035 69464 3097497 65074 83277 128567 29313 12423 42548 18279 14682 24104
cat_boundaries=0 1 2 3 4 5 6 7 8 9 10 11 12 13
cat_threshold=2568 65 65 271582016 8 65 1203804330 75 688523324 8 65 10 1073745920
is_linear=0
shrinkage=0.1


Tree=3
num_leaves=31
num_cat=13
split_feature=22 19 21 18 0 21 20 27 27 0 13 2 3 0 9 22 10 27 0 22 27 26 76 20 0 24 94 27 27 0
split_gain=4.49942e+12 5.95216e+11 5.43935e+11 1.53745e+11 1.33818e+11 9.00734e+10 8.35602e+10 5.60936e+10 5.1579e+10 3.19455e+10 2.81987e+10 2.18441e+10 2.12495e+10 1.63966e+10 1.60025e+10 1.34093e+10 1.30544e+10 1.23987e+10 1.17965e+10 1.1744e+10 1.14049e+10 1.09409e+10 1.0087e+10 9.27675e+09 9.00178e+09 8.41595e+09 8.19007e+09 8.08539e+09 7.74011e+09 7.36206e+09
threshold=1715.1270000000002 471.56000000000006 4494.2340000000013 2554.2775000000006 0 961.19200000000012 114.30050000000001 1 2 3 2996.5000000000005 1979.2160000000001 1499.5000000000002 4 4960.0080000000007 682.07700000000011 311.01050000000004 5 6 3284.5000000000005 7 8 1.0000000180025095e-35 2652.0120000000002 9 90.950000000000003 1.0000000180025095e-35 10 11 12
decision_type=2 2 2 2 1 2 2 1 1 1 2 2 2 1 2 2 2 1 1 2 1 1 2 2 1 2 2 1 1 1
left_child=1 6 3 11 7 15 -1 18 9 23 -10 -2 27 20 -9 -3 -8 29 -4 -12 22 -16 -6 -5 -11 -23 -22 -7 -14 -13
right_child=2 5 4 8 13 12 16 14 10 24 19 17 28 -15 21 -17 -18 -19 -20 -21 26 25 -24 -25 -26 -27 -28 -29 -30 -31
leaf_value=-19.01629294360627 110.30120125596301 20.840569765498476 679.31990614268398 271.37889328090017 360.59980104687708 88.079914621922683 -5.2045221880087222 335.20237447349098 168.78592171479909 277.02681835284073 202.41994738399137 99.759854646596239 139.99310083468788 228.31667834902848 620.52720837499487 43.142004022334085 8.9127230787763132 143.12166352330919 529.5008357825352 261.61826984072098 268.96499718670884 470.46161732480778 1179.852685102248 403.14375624979925 204.96889994461722 369.85956679089276 1093.7202074791774 57.015108859478573 93.19482385765167 210.2295836761615
leaf_weight=14318218 169538 714085 12119 6913 31895 115000 2333107 15105 121945 50272 60759 6889 51115 25985 3760 433156 910705 146702 10351 74728 24403 26429 151 23529 27023 12133 121 309793 115584 52407
leaf_count=14318218 169538 714085 12119 6913 31895 115000 2333107 15105 121945 50272 60759 6889 51115 25985 3760 433156 910705 146702 10351 74728 24403 26429 151 23529 27023 12133 121 309793 115584 52407
internal_value=0 -10.2075 218.156 181.812 383.868 45.6037 -15.7331 476.173 228.014 286.152 203.664 136.886 77.3019 294.44 423.489 29.2608 -1.24108 158.766 610.571 235.071 324.768 455.1 364.346 373.099 251.865 438.695 272.923 65.4284 107.559 197.414
internal_weight=0 1.93008e+07 903157 740705 162452 1.73873e+06 1.7562e+07 79897 365169 107737 257432 375536 591492 82555 57427 1.14724e+06 3.24381e+06 205998 22470 135487 56570 42322 32046 30442 77295 38562 24524 424793 166699 59296
internal_count=20203920 19300763 903157 740705 162452 1738733 17562030 79897 365169 107737 257432 375536 591492 82555 57427 1147241 3243812 205998 22470 135487 56570 42322 32046 30442 77295 38562 24524 424793 166699 59296
cat_boundaries=0 1 2 3 4 5 6 7 8 9 10 11 12 13
cat_threshold=2568 65 65 271582024 3277252 65 8 75 2048 688523316 65 65 1149239298
is_linear=0
shrinkage=0.1


Tree=4
num_leaves=31
num_cat=11
split_feature=20 16 22 0 22 22 17 27 20 27 10 22 27 5 21 0 17 0 4 27 27 0 24 4 58 19 58 0 27 94
split_gain=3.66323e+12 4.81316e+11 4.4434e+11 1.37829e+11 1.06287e+11 7.79081e+10 5.3916e+10 4.59125e+10 3.26735e+10 2.24565e+10 1.86506e+10 1.83124e+10 1.79093e+10 1.54898e+10 1.5427e+10 1.48678e+10 1.4714e+10 1.38216e+10 1.34026e+10 1.06701e+10 1.03702e+10 9.03805e+09 8.92342e+09 8.52651e+09 8.50089e+09 7.3964e+09 7.36443e+09 6.91688e+09 6.85857e+09 6.74982e+09
threshold=1614.2025000000001 3987.8595000000005 401.21450000000004 0 2374.4920000000006 946.50000000000011 93.109000000000023 1 3135.5000000000005 2 1708.5000000000002 6369.219000000001 3 4912.5000000000009 3295.1580000000004 4 1390.5000000000002 5 643.07650000000012 6 7 8 90.950000000000003 4473.0000000000009 1.0000000180025095e-35 267.25250000000005 1.0000000180025095e-35 9 10 1.0000000180025095e-35
decision_type=2 2 2 1 2 2 2 1 2 1 2 2 1 2 2 1 2 1 2 1 1 1 2 2 2 2 2 1 1 2
left_child=2 4 6 7 10 18 -1 13 19 15 -2 23 17 -3 -14 -10 28 -5 -4 -6 27 -11 -15 -9 29 -8 -13 -12 -7 -16
right_child=1 3 5 12 8 16 25 11 9 21 20 26 14 22 24 -17 -18 -19 -20 -21 -22 -23 -24 -25 -26 -27 -28 -29 -30 -31
leaf_value=-17.371085542018101 87.956246707140394 412.20520442211904 14.8631622432288 373.94950958236882 188.55698757153107 75.948200825812989 -6.2693579950772325 238.85551067518006 361.44159450745866 226.41949177334538 122.90333564462449 430.28372425838535 177.87490814239192 628.91266111822245 265.72752408800523 241.54007555233193 89.046481909258773 254.34318504784562 35.007015948300158 140.94395564723632 119.31947190321419 173.68242849672538 476.20391877135398 352.58127250596579 -146.34004224217583 4.0448234454359682 -239.57695060961174 192.24076672743007 46.882989508397813 978.98468282312388
leaf_weight=13954986 153233 7604 884807 19097 84140 112657 2296557 9427 15281 64460 22472 30892 33625 12550 54843 33003 184878 20102 527036 107993 149870 66692 5505 21926 501 997144 165 40863 291478 133
leaf_count=13954986 153233 7604 884807 19097 84140 112657 2296557 9427 15281 64460 22472 30892 33625 12550 54843 33003 184878 20102 527036 107993 149870 66692 5505 21926 501 997144 165 40863 291478 133
internal_value=0 191.235 -9.4803 322.39 152.782 35.1282 -14.6549 418.76 190.469 221.154 114.568 372.239 256.187 531.722 231.296 279.554 65.6784 312.694 22.3828 161.812 133.694 199.617 582.352 318.387 263.716 -3.14681 426.725 167.662 54.9883 267.453
internal_weight=0 954377 1.92495e+07 216370 738007 2.00086e+06 1.72487e+07 88069 371569 179436 366438 62410 128301 25659 89102 48284 589013 39199 1.41184e+06 192133 213205 131152 18055 31353 55477 3.2937e+06 31057 63335 404135 54976
internal_count=20203920 954377 19249543 216370 738007 2000856 17248687 88069 371569 179436 366438 62410 128301 25659 89102 48284 589013 39199 1411843 192133 213205 131152 18055 31353 55477 3293701 31057 63335 404135 54976
cat_boundaries=0 1 2 3 4 5 6 7 8 9 10 11
cat_threshold=2568 65 65 65 271582024 271712576 67 65 17828808 1203804322 65
is_linear=0
shrinkage=0.1


Tree=5
num_leaves=31
num_cat=14
split_feature=21 18 17 9 0 20 22 27 27 20 0 19 9 22 0 27 22 27 21 76 2 27 1 94 27 27 24 0 0 27
split_gain=2.97978e+12 3.81331e+11 3.80225e+11 1.05185e+11 8.76939e+10 5.6667e+10 5.48112e+10 3.68079e+10 2.92356e+10 2.04779e+10 1.91747e+10 1.77811e+10 1.46122e+10 1.29105e+10 1.24701e+10 1.10363e+10 1.01678e+10 9.31219e+09 8.62274e+09 8.36241e+09 8.32242e+09 8.06535e+09 8.38269e+09 7.65594e+09 7.57255e+09 7.04817e+09 6.44554e+09 6.37648e+09 6.35957e+09 6.3505e+09
threshold=1681.5000000000002 4468.4475000000011 463.99150000000003 2686.4515000000006 0 912.50000000000011 84.000500000000017 1 2 2159.5000000000005 3 2868.5000000000005 1363.2145000000003 5553.7855000000009 4 5 287.00749000000002 6 3614.0675000000006 1.0000000180025095e-35 5451.0000000000009 7 8 1.0000000180025095e-35 9 10 90.950000000000003 11 12 13
decision_type=2 2 2 2 1 2 2 1 1 2 1 2 2 2 1 1 2 1 2 2 2 1 1 2 1 1 2 1 1 1
left_child=2 3 6 9 7 24 -1 20 10 -2 -5 -10 29 -9 17 27 -8 19 -13 -6 -3 22 -15 -19 -4 -14 -22 -11 -12 -7
right_child=1 4 5 8 14 12 16 13 11 15 28 18 25 21 -16 -17 -18 23 -20 -21 26 -23 -24 -25 -26 -27 -28 -29 -30 -31
leaf_value=-15.734848723306534 90.085108636858564 409.4904196775106 35.092410422338574 311.68188307412635 303.33119436787075 69.254215163729697 -5.4383907675524172 278.04597912154583 136.6620084213005 91.698926910605209 228.11000669579153 168.10317963619869 109.09184555753335 597.72758320762068 188.13503232915704 115.69381507323611 6.0253816608095532 219.49997435800483 218.78748029378585 1075.2100811302241 577.39278423460883 340.27251729183763 400.41890922612629 1059.4816198786464 17.142864305204995 69.288742511817659 434.93202959894734 170.75350382303037 162.31922719721695 41.826196114548679
leaf_weight=13798982 201468 7569 335761 24409 30766 116400 2638658 18925 97077 11789 50646 68793 64825 2727 28309 135759 1094682 24002 65549 141 11251 22616 12660 109 783768 142609 4425 80177 21087 307981
leaf_count=13798982 201468 7569 335761 24409 30766 116400 2638658 18925 97077 11789 50646 68793 64825 2727 28309 135759 1094682 24002 65549 141 11251 22616 12660 109 783768 142609 4425 80177 21087 307981
internal_value=0 175.799 -8.3885 145.878 314.289 36.0398 -12.8265 388.992 188.554 113.308 234.946 169.263 59.9841 345.469 242.337 133.854 -2.07701 270.186 192.833 306.753 495.388 379.136 435.753 223.205 22.5266 81.7362 537.179 160.631 208.795 49.3518
internal_weight=0 920254 1.92837e+07 756754 163500 1.75134e+06 1.75323e+07 80173 327561 429193 96142 231419 631815 56928 83327 227725 3.73334e+06 55018 134342 30907 23245 38003 15387 24111 1.11953e+06 207434 15676 91966 71733 424381
internal_count=20203920 920254 19283666 756754 163500 1751344 17532322 80173 327561 429193 96142 231419 631815 56928 83327 227725 3733340 55018 134342 30907 23245 38003 15387 24111 1119529 207434 15676 91966 71733 424381
cat_boundaries=0 1 2 3 4 5 6 7 8 9 10 11 12 13 14
cat_threshold=2568 65 65 271582016 1180100 67 75 10 1073741824 65 65 1186988034 688588860 65
is_linear=0
shrinkage=0.1


Tree=6
num_leaves=31
num_cat=11
split_feature=22 18 20 11 22 19 10 27 27 0 0 76 2 20 21 27 21 21 58 2 27 11 0 24 1 27 27 58 16 27
split_gain=2.41988e+12 3.54498e+11 2.90157e+11 7.64232e+10 7.20546e+10 5.09981e+10 5.04773e+10 2.74068e+10 2.55419e+10 2.41696e+10 1.7461e+10 1.54546e+10 1.62327e+10 1.38769e+10 1.35733e+10 1.32792e+10 1.21109e+10 8.38836e+09 8.06766e+09 7.99404e+09 7.58259e+09 7.2351e+09 7.05757e+09 6.91964e+09 6.71656e+09 6.48764e+09 6.12469e+09 5.82078e+09 5.85377e+09 5.6934e+09
threshold=1842.8240000000003 515.20300000000009 4523.5000000000009 2682.5000000000005 4924.2630000000008 137.56350500000002 1028.9585000000002 0 1 2 3 1.0000000180025095e-35 7369.9085000000005 1437.3425000000002 3021.5000000000005 4 2409.0690000000004 718.6110000000001 1.0000000180025095e-35 351.09800000000007 5 3298.5000000000005 6 94.585000000000022 7 8 9 1.0000000180025095e-35 3630.6450000000004 10
decision_type=2 2 2 2 2 2 2 1 1 1 1 2 2 2 2 1 2 2 2 2 1 2 1 2 1 1 1 2 2 1
left_child=1 5 3 16 15 24 17 10 9 11 29 23 -13 26 -9 22 -2 -3 -10 -7 -18 -17 -4 -6 -1 -15 -8 28 -16 -5
right_child=2 6 4 7 8 19 13 14 18 -11 -12 12 -14 25 27 21 20 -19 -20 -21 -22 -23 -24 -25 -26 -27 -28 -29 -30 -31
leaf_value=-9.7605097584507181 90.315185021090244 16.475646315297489 335.08550192940191 312.72185524583097 504.10826245922226 -2.607281687073856 68.475731482932574 127.54930431902028 293.90015027502261 331.47290974259238 184.08370205304595 3901.7013219762734 494.41783910290951 108.68924021496798 156.97534079024217 153.33649375128309 162.95459442141185 34.459456354896275 -191.42271663246817 9.0130448093050113 113.83392147064171 225.18736717547137 217.21327395376986 371.82627108375738 -14.903882330575939 70.16988851690094 40.502388414636698 -157.86714664068168 200.7796138956152 233.04676397700834
leaf_weight=3263815 204459 596750 12686 18345 17313 2220130 113489 101680 34057 23245 56473 27 29 61377 62423 24480 43054 458756 346 807275 118126 32782 8792 5125 11434413 153041 252799 517 59668 18448
leaf_count=3263815 204459 596750 12686 18345 17313 2220130 113489 101680 34057 23245 56473 27 29 61377 62423 24480 43054 458756 346 807275 118126 32782 8792 5125 11434413 153041 252799 517 59668 18448
internal_value=0 -7.21641 165.951 137.643 287.675 -11.3275 37.3199 173.532 354.426 403.535 219.126 477.823 2137.22 60.9998 154.556 219.735 106.474 24.292 288.935 0.491345 126.972 194.437 286.958 473.894 -13.7618 81.2044 49.1725 176.965 178.383 272.847
internal_weight=0 1.93618e+07 842075 683193 158882 1.77256e+07 1.63621e+06 317554 80142 45739 93266 22494 56 580706 224288 78740 365639 1.05551e+06 34403 3.0274e+06 161180 57262 21478 22438 1.46982e+07 214418 366288 122608 122091 36793
internal_count=20203920 19361845 842075 683193 158882 17725633 1636212 317554 80142 45739 93266 22494 56 580706 224288 78740 365639 1055506 34403 3027405 161180 57262 21478 22438 14698228 214418 366288 122608 122091 36793
cat_boundaries=0 1 2 3 4 5 6 7 8 9 10 11
cat_threshold=65 75 12 271715144 65 65 3279688 1933582120 65 65 1
is_linear=0
shrinkage=0.1


Tree=7
num_leaves=31
num_cat=12
split_feature=18 22 22 3 2 16 22 27 27 20 19 0 21 0 22 27 27 12 24 27 21 0 4 11 27 0 1 24 58 27
split_gain=1.96961e+12 2.7444e+11 2.36089e+11 8.08158e+10 5.93422e+10 3.79998e+10 3.32353e+10 2.18847e+10 1.81779e+10 1.41566e+10 1.38866e+10 1.24787e+10 1.18583e+10 1.1749e+10 9.71383e+09 8.73693e+09 8.03188e+09 6.826e+09 6.66941e+09 6.62785e+09 6.066e+09 5.99238e+09 5.95087e+09 5.63391e+09 5.0486e+09 4.85313e+09 4.78064e+09 4.72232e+09 4.31591e+09 4.282e+09
threshold=1600.0855000000004 3957.5000000000005 482.17301000000003 4924.6850000000004 2463.1970000000006 131.76750000000001 1022.1615 0 1 4192.5000000000009 2868.5000000000005 2 1939.4880000000003 3 5553.7855000000009 4 5 686.08900000000006 90.950000000000003 6 2588.4850000000001 7 326.62400000000008 4498.2340000000013 8 9 10 47.100000000000009 1.0000000180025095e-35 11
decision_type=2 2 2 2 2 2 2 1 1 2 2 1 2 1 2 1 1 2 2 1 2 1 2 2 1 1 1 2 2 1
left_child=2 4 5 9 12 26 17 11 10 15 -6 27 -2 18 16 -3 -8 -4 24 25 -10 -11 -7 -12 -9 -14 -1 -5 -23 -19
right_child=1 3 6 7 8 22 14 13 20 21 23 -13 19 -15 -16 -17 -18 29 -20 -21 -22 28 -24 -25 -26 -27 -28 -29 -30 -31
leaf_value=-9.2968855067333447 67.092349738137187 216.63867233507668 12.997665505077189 525.48864308639691 134.01979209372104 -2.9121399583681584 69.692702751364394 249.92549310908467 87.417361519656481 318.7600095168454 175.11162782607633 310.72932846136422 97.324029626362602 211.6211645652312 282.86581860112824 144.71462803743688 41.76617657595358 43.559319260799079 244.93002372419261 81.394544713270705 130.46013454035469 220.20085001405025 6.9696268947076945 232.81188351049718 354.62024735487853 138.12105583940664 -13.500086487734078 408.09170155791645 -148.92509329386266 22.748826737168095
leaf_weight=3588321 195346 23515 646352 5740 93888 2155644 143443 5969 52594 6845 78203 10766 60433 17440 1792 61205 365880 138477 11467 93577 86742 45006 849598 21595 24587 56944 11007612 8501 319 346119
leaf_count=3588321 195346 23515 646352 5740 93888 2155644 143443 5969 52594 6845 78203 10766 60433 17440 1792 61205 365880 138477 11467 93577 86742 45006 849598 21595 24587 56944 11007612 8501 319 346119
internal_value=0 139.741 -6.97525 237.42 110.495 -10.3584 29.2887 314.339 141.788 189.956 161.618 393.089 84.8457 281.107 50.4512 164.721 49.6334 19.7246 309.888 101.285 114.205 230.936 -0.118512 187.597 334.366 117.126 -12.4668 455.09 217.555 28.697
internal_weight=0 960682 1.92432e+07 221360 739322 1.76012e+07 1.64206e+06 84470 333022 136890 193686 25007 406300 59463 511115 84720 509323 1.13095e+06 42023 210954 139336 52170 3.00524e+06 99798 30556 117377 1.45959e+07 14241 45325 484596
internal_count=20203920 960682 19243238 221360 739322 17601175 1642063 84470 333022 136890 193686 25007 406300 59463 511115 84720 509323 1130948 42023 210954 139336 52170 3005242 99798 30556 117377 14595933 14241 45325 484596
cat_boundaries=0 1 2 3 4 5 6 7 8 9 10 11 12
cat_threshold=65 75 1049096 2184 65 65 75 1048588 16 1187298858 1933844392 65
is_linear=0
shrinkage=0.1


Tree=8
num_leaves=31
num_cat=12
split_feature=20 10 22 22 22 21 11 27 27 19 0 27 12 27 27 0 0 27 19 58 91 0 27 0 22 5 22 20 76 15
split_gain=1.60483e+12 2.17286e+11 2.02808e+11 5.48118e+10 5.449e+10 3.4865e+10 2.78619e+10 1.88291e+10 1.80133e+10 1.33678e+10 1.10159e+10 1.05539e+10 9.57468e+09 8.4639e+09 7.47278e+09 7.13607e+09 6.5366e+09 6.38352e+09 6.31173e+09 5.97277e+09 5.91708e+09 5.81195e+09 5.73803e+09 6.65258e+09 5.72417e+09 5.48061e+09 5.34014e+09 5.26856e+09 5.12292e+09 8.91697e+09
threshold=1678.5420000000001 4238.3835000000008 518.9430000000001 4924.2630000000008 2551.8930000000005 160.93950500000003 962.0535000000001 0 1 4182.3180000000002 2 3 1931.5000000000002 4 5 6 7 8 3595.5265000000004 1.0000000180025095e-35 1.0000000180025095e-35 9 10 11 28.024500000000003 364.83400000000006 4924.2630000000008 3587.5000000000005 1.0000000180025095e-35 7598.5260000000007
decision_type=2 2 2 2 2 2 2 1 1 2 1 1 2 1 1 1 1 1 2 2 2 1 1 1 2 2 2 2 2 2
left_child=2 4 5 11 12 24 26 16 19 15 14 21 -2 -8 28 -10 -5 -14 -13 20 27 -3 23 -17 -1 -7 -4 -6 -9 -30
right_child=1 3 6 7 8 25 13 10 9 -11 -12 18 17 -15 -16 22 -18 -19 -20 -21 -22 -23 -24 -25 -26 -27 -28 -29 29 -31
leaf_value=-11.970672521502728 59.467758862133387 263.16312877763079 18.175043861644454 438.77778149287161 92.81167451732432 -1.5149553820253345 65.227756584692131 354.90996469542267 107.660495380545 202.97602277221992 229.80140336450282 120.10351935316577 77.495683019526737 38.369132579227589 261.27015076305821 125.92257972428395 242.67811844962455 111.63226310525575 181.52576821100962 -142.45656106177117 474.72439837369052 177.14155293020411 140.26296549669937 228.40558128550876 -6.9074024865747496 8.5246325308177138 287.63918701488041 131.08576655725389 2880.3173794876448 265.03109945058821
leaf_weight=12337683 155737 17678 977399 9826 93840 1914813 166124 16407 49496 41563 37125 29669 132163 400063 16359 9845 2170 93965 38362 954 440 14564 84726 18284 2726169 759391 736 58315 22 32
leaf_count=12337683 155737 17678 977399 9826 93840 1914813 166124 16407 49496 41563 37125 29669 132163 400063 16359 9845 2170 93965 38362 954 440 14564 84726 18284 2726169 759391 736 58315 22 32
internal_value=0 128.921 -6.16031 226.731 104.815 -9.18638 28.597 287.403 132.874 152.365 267.39 177.152 78.5482 46.2515 309.826 139.418 403.536 91.6891 154.716 106.973 108.54 224.373 153.322 192.595 -11.0544 1.33598 18.3778 107.481 357.893 1330.52
internal_weight=0 921542 1.92824e+07 182214 739328 1.77381e+07 1.54432e+06 81941 357463 203914 69945 100273 381865 566187 32820 162351 11996 226128 68031 153549 152595 32242 112855 28129 1.50639e+07 2.6742e+06 978135 152155 16461 54
internal_count=20203920 921542 19282378 182214 739328 17738056 1544322 81941 357463 203914 69945 100273 381865 566187 32820 162351 11996 226128 68031 153549 152595 32242 112855 28129 15063852 2674204 978135 152155 16461 54
cat_boundaries=0 1 2 3 4 5 6 7 8 9 10 11 12
cat_threshold=1 52 12 65 65 74 1187380234 1182280 60 3279688 1 17301664
is_linear=0
shrinkage=0.1


Tree=9
num_leaves=31
num_cat=12
split_feature=16 19 21 3 10 22 21 27 27 9 27 0 21 12 21 24 58 22 27 27 0 21 26 26 1 22 94 27 80 27
split_gain=1.30933e+12 1.79263e+11 1.62278e+11 4.77521e+10 4.0886e+10 2.89839e+10 2.05778e+10 1.72851e+10 1.5111e+10 1.04049e+10 8.67744e+09 8.00752e+09 7.90711e+09 7.6411e+09 7.11527e+09 6.70664e+09 5.97823e+09 5.94592e+09 5.79616e+09 5.73531e+09 5.43679e+09 5.08559e+09 4.99992e+09 4.77615e+09 9.51872e+09 4.71619e+09 4.6815e+09 4.60516e+09 4.52883e+09 4.40268e+09
threshold=1669.5000000000002 4480.0370000000012 525.38950000000011 2561.4850000000001 4966.7380000000003 175.26600000000005 1095.0175000000002 0 1 3982.7065000000007 2 3 2155.5000000000005 2887.2790000000005 5552.5000000000009 94.585000000000022 1.0000000180025095e-35 3449.3255000000004 4 5 6 31.006000500000003 7 8 9 6369.219000000001 1.0000000180025095e-35 10 1.0000000180025095e-35 11
decision_type=2 2 2 2 2 2 2 1 1 2 1 1 2 2 2 2 2 2 1 1 1 2 1 1 1 2 2 1 2 1
left_child=2 3 5 12 10 21 18 9 11 28 20 15 -2 -9 19 -6 -10 -12 -4 -8 -3 -1 -15 24 -17 -11 -19 -14 -5 -7
right_child=1 4 6 7 8 29 14 13 16 25 17 -13 27 22 -16 23 -18 26 -20 -21 -22 -23 -24 -25 -26 -27 -28 -29 -30 -31
leaf_value=-10.744183669664645 58.232153169430674 255.15600744293289 29.835804437106329 129.22792243094636 377.40278777416347 8.372358537733815 60.780080042300007 81.238406590036931 217.2750646710806 176.0637208529109 105.94034025630722 260.67069911593518 61.727830401176362 200.01723578532904 236.88969426520725 220.30685960692281 -250.1545577781788 167.50934278255491 13.392837374046952 35.734867279725655 153.60943562175476 -6.0166051708059864 114.46151506933086 318.27155739206785 -375.92375294078482 288.15149151540578 814.94536985584671 96.34537858750997 543.87819404891047 -0.91794640013588735
leaf_weight=12497689 204909 14476 299377 116682 16896 717850 125448 92519 31663 42878 23577 21727 53767 7348 1891 1429 276 39608 755291 337923 8509 2781934 103607 3113 320 4114 112 136179 264 1762544
leaf_count=12497689 204909 14476 299377 116682 16896 717850 125448 92519 31663 42878 23577 21727 53767 7348 1891 1429 276 39608 755291 337923 8509 2781934 103607 3113 320 4114 112 136179 264 1762544
internal_value=0 116.288 -5.57188 96.0003 211.92 -8.25579 25.7889 121.947 265.701 146.125 164.907 304.167 71.8568 102.455 43.3074 347.461 213.169 145.699 18.0607 42.5174 217.647 -9.88344 120.156 244.124 109.703 185.877 169.335 86.5547 130.164 1.77079
internal_weight=0 923973 1.92799e+07 762267 161706 1.776e+07 1.51993e+06 367412 75424 163938 86282 43485 394855 203474 465262 21758 31939 63297 1.05467e+06 463371 22985 1.52796e+07 110955 4862 1749 46992 39720 189946 116946 2.48039e+06
internal_count=20203920 923973 19279947 762267 161706 17760017 1519930 367412 75424 163938 86282 43485 394855 203474 465262 21758 31939 63297 1054668 463371 22985 15279623 110955 4862 1749 46992 39720 189946 116946 2480394
cat_boundaries=0 1 2 3 4 5 6 7 8 9 10 11 12
cat_threshold=67 75 65 12 65 65 271715144 2048 138 4104 48 65
is_linear=0
shrinkage=0.1


end of trees

feature_importances:
day=65
store_nbr=51
x_21=35
x_20=20
x_18=15
x_19=13
dcoilwtico=11
x_9=8
x_16=8
family=7
x_17=7
Primerdiadelano=7
x_1=6
x_15=6
x_8=5
x_10=5
TerremotoManabiplus16=5
TerremotoManabiplus5=5
x_2=4
x_11=4
month=4
x_3=3
x_4=2
x_12=1
x_14=1
TerremotoManabiplus2=1
TerremotoManabiplus3=1

parameters:
[boosting: gbdt]
[objective: regression]
[metric: custom]
[tree_learner: serial]
[device_type: cpu]
[data_sample_strategy: bagging]
[data: ]
[valid: ]
[num_iterations: 10]
[learning_rate: 0.1]
[num_leaves: 31]
[num_threads: 0]
[seed: 0]
[deterministic: 0]
[force_col_wise: 0]
[force_row_wise: 0]
[histogram_pool_size: -1]
[max_depth: -1]
[min_data_in_leaf: 20]
[min_sum_hessian_in_leaf: 0.001]
[bagging_fraction: 1]
[pos_bagging_fraction: 1]
[neg_bagging_fraction: 1]
[bagging_freq: 0]
[bagging_seed: 3]
[feature_fraction: 1]
[feature_fraction_bynode: 1]
[feature_fraction_seed: 2]
[extra_trees: 0]
[extra_seed: 6]
[early_stopping_round: 0]
[early_stopping_min_delta: 0]
[first_metric_only: 0]
[max_delta_step: 0]
[lambda_l1: 0]
[lambda_l2: 0]
[linear_lambda: 0]
[min_gain_to_split: 0]
[drop_rate: 0.1]
[max_drop: 50]
[skip_drop: 0.5]
[xgboost_dart_mode: 0]
[uniform_drop: 0]
[drop_seed: 4]
[top_rate: 0.2]
[other_rate: 0.1]
[min_data_per_group: 100]
[max_cat_threshold: 32]
[cat_l2: 10]
[cat_smooth: 10]
[max_cat_to_onehot: 4]
[top_k: 20]
[monotone_constraints: ]
[monotone_constraints_method: basic]
[monotone_penalty: 0]
[feature_contri: ]
[forcedsplits_filename: ]
[refit_decay_rate: 0.9]
[cegb_tradeoff: 1]
[cegb_penalty_split: 0]
[cegb_penalty_feature_lazy: ]
[cegb_penalty_feature_coupled: ]
[path_smooth: 0]
[interaction_constraints: ]
[verbosity: 1]
[saved_feature_importance_type: 0]
[use_quantized_grad: 0]
[num_grad_quant_bins: 4]
[quant_train_renew_leaf: 0]
[stochastic_rounding: 1]
[linear_tree: 0]
[max_bin: 255]
[max_bin_by_feature: ]
[min_data_in_bin: 3]
[bin_construct_sample_cnt: 200000]
[data_random_seed: 1]
[is_enable_sparse: 1]
[enable_bundle: 1]
[use_missing: 1]
[zero_as_missing: 0]
[feature_pre_filter: 1]
[pre_partition: 0]
[two_round: 0]
[header: 0]
[label_column: ]
[weight_column: ]
[group_column: ]
[ignore_column: ]
[categorical_feature: 0,1,25,26,27]
[forcedbins_filename: ]
[precise_float_parser: 0]
[parser_config_file: ]
[objective_seed: 5]
[num_class: 1]
[is_unbalance: 0]
[scale_pos_weight: 1]
[sigmoid: 1]
[boost_from_average: 1]
[reg_sqrt: 0]
[alpha: 0.9]
[fair_c: 1]
[poisson_max_delta_step: 0.7]
[tweedie_variance_power: 1.5]
[lambdarank_truncation_level: 30]
[lambdarank_norm: 1]
[label_gain: ]
[lambdarank_position_bias_regularization: 0]
[eval_at: ]
[multi_error_top_k: 1]
[auc_mu_weights: ]
[num_machines: 1]
[local_listen_port: 12400]
[time_out: 120]
[machine_list_filename: ]
[machines: ]
[gpu_platform_id: -1]
[gpu_device_id: -1]
[gpu_use_dp: 0]
[num_gpu: 1]

end of parameters

pandas_categorical:null
